{"layers":[{"nodes":{"0":{},"1":{},"2":{},"3":{},"4":{},"5":{},"6":{},"7":{},"8":{},"9":{},"10":{},"11":{},"12":{},"13":{},"14":{},"15":{},"16":{},"17":{},"18":{},"19":{},"20":{},"21":{},"22":{},"23":{},"24":{},"25":{},"26":{},"27":{},"28":{},"29":{},"30":{},"31":{},"32":{},"33":{},"34":{},"35":{},"36":{},"37":{},"38":{},"39":{},"40":{},"41":{},"42":{},"43":{},"44":{},"45":{},"46":{},"47":{},"48":{},"49":{},"50":{},"51":{},"52":{},"53":{},"54":{},"55":{},"56":{},"57":{},"58":{},"59":{},"60":{},"61":{},"62":{},"63":{},"64":{},"65":{},"66":{},"67":{},"68":{},"69":{},"70":{},"71":{},"72":{},"73":{},"74":{},"75":{},"76":{},"77":{},"78":{},"79":{},"80":{},"81":{},"82":{},"83":{},"84":{},"85":{},"86":{},"87":{},"88":{},"89":{},"90":{},"91":{},"92":{},"93":{},"94":{},"95":{},"96":{},"97":{},"98":{},"99":{},"100":{},"101":{},"102":{},"103":{},"104":{},"105":{},"106":{},"107":{},"108":{},"109":{},"110":{},"111":{},"112":{},"113":{},"114":{},"115":{},"116":{},"117":{},"118":{},"119":{}}},{"nodes":{"0":{"weights":{"0":-0.19487518106649446,"1":0.0015125346532656751,"2":0.04081380059629603,"3":-0.028296144605077383,"4":0.283405224631662,"5":0.11864571022211136,"6":0.2753832839566449,"7":0.09413576880259707,"8":0.06694800494978163,"9":-0.47537155889727595,"10":-0.6000893111225625,"11":-0.5119302028185203,"12":0.07559008746317634,"13":0.06615447415385126,"14":0.12606526887011288,"15":-0.3718605869867737,"16":0.27532349531017947,"17":0.22634470725039196,"18":0.20160450185994552,"19":0.3817752991300611,"20":-0.12254174069669461,"21":-0.06462083698321355,"22":-0.07945144971983485,"23":-0.034190791547244664,"24":0.3099107756947146,"25":-0.7882718470066479,"26":-0.727981920019567,"27":0.20760551782866474,"28":-0.05434064568032293,"29":0.23057197594501375,"30":0.3120906124980876,"31":0.11637951235823328,"32":0.3913364209019122,"33":0.23783839470241686,"34":0.2307487554461647,"35":-0.27994098075830853,"36":-0.2628102028151762,"37":-0.1597886788470094,"38":0.6052520274168621,"39":0.25404618267291607,"40":-0.3861168862092275,"41":-0.20805805560131374,"42":0.11198774465720372,"43":0.12690088074843484,"44":0.12792164823704694,"45":0.2253304159080963,"46":-0.10583277459613177,"47":-0.20987223893042128,"48":-0.22717413134452502,"49":-0.0986019899747058,"50":0.721040733355817,"51":0.19023190696454126,"52":-0.07387755863906396,"53":0.9731283971165466,"54":0.9904398491458152,"55":0.23429559696403526,"56":-0.10049315311815246,"57":0.23187213556142822,"58":0.2142206538414198,"59":0.3102310531231867,"60":-0.02661118811773126,"61":0.09146042132027704,"62":-0.14675542621573204,"63":-0.28587080414645105,"64":-0.18375464614551817,"65":0.3628252976217147,"66":0.3669459785319742,"67":-0.11907777361183995,"68":0.7480801536759302,"69":0.7050746936847024,"70":0.0839711732046622,"71":-0.051970939266705485,"72":0.08061296695881777,"73":-0.15809437984987898,"74":0.01850540681344782,"75":0.02178315322809758,"76":0.2061774768103263,"77":0.012218988339534987,"78":-0.6230794959326962,"79":-0.38419802303208417,"80":-0.09885745465486648,"81":-0.1600934414855146,"82":-0.0782286510581521,"83":-0.04431941641481942,"84":-0.11053515034370301,"85":-0.36718339881956036,"86":-0.3404176474837339,"87":-0.25206884037735244,"88":0.11221367036576554,"89":-0.18371005345197355,"90":0.17798955942200279,"91":-0.21829881217268413,"92":-0.0683902136273692,"93":0.23467063783607886,"94":-0.5597594033830183,"95":-0.12765212491488484,"96":-0.1894155692075618,"97":-0.21752098275879966,"98":-0.4462973160088367,"99":-0.3627983105610806,"100":-0.14399742529323104,"101":-0.3148312770233912,"102":-0.15243287018842686,"103":-0.1350386023631014,"104":-0.09429992659811585,"105":-0.12410062957073194,"106":0.6410495845467618,"107":0.389319605657723,"108":0.5124167169419948,"109":-0.25800511523918207,"110":-0.24132949468139556,"111":0.23386086563606706,"112":0.3801975586764817,"113":0.06684660067650751,"114":-0.05746463303096552,"115":-0.33830648907187666,"116":-0.1778133717201871,"117":-0.11335368295395153,"118":0.3394673516972111,"119":0.37762263857380746},"bias":0.11340042237763988},"1":{"weights":{"0":0.39804794778348285,"1":0.7354960797032518,"2":0.21318587980157935,"3":-0.182660104221478,"4":-0.2964307153384141,"5":-0.018402179195242518,"6":-0.07849140788320272,"7":-0.03686714131260562,"8":-0.5295790501817474,"9":-0.39008012066525766,"10":0.2376809203593651,"11":0.15297943987584003,"12":0.07033741967048877,"13":0.02699712024536184,"14":-0.03390988012554374,"15":1.0256157502370642,"16":0.3588697563500917,"17":-0.012763675996306002,"18":-0.02142281970067909,"19":-0.426130561362342,"20":-0.3951522102806663,"21":-0.3961040041856198,"22":-0.21838936706728923,"23":-0.6397938108641319,"24":-0.7776207481739705,"25":-0.009745971456019733,"26":0.06627462262301093,"27":-0.10710542922485712,"28":-0.17764808026519657,"29":0.057780149202612444,"30":0.2973204871915573,"31":0.1668843195076221,"32":0.11024164036428657,"33":-0.66732261736371,"34":-0.8628319993226367,"35":-0.39439710120804833,"36":0.017667171223538926,"37":-0.04994288288118782,"38":-0.6991079905722256,"39":-0.5463512200004272,"40":-0.69767648605414,"41":-0.6334907519039155,"42":0.2705208543438337,"43":-0.02705706434303992,"44":0.14343705396048204,"45":0.3551027404797637,"46":-0.06532110553716713,"47":0.5016448886807912,"48":-0.2938075732085773,"49":-0.24267740311511857,"50":-0.14897578923590918,"51":0.2683428836491842,"52":0.07305600047904334,"53":-0.28734649655427147,"54":-0.2549062382231355,"55":0.09023649612445163,"56":-0.04142374830021818,"57":0.3202595915907432,"58":-0.0673496082840088,"59":-0.07320059574284765,"60":-0.014754485730273695,"61":0.10822727194920015,"62":0.4531425510287436,"63":-0.11154669050780142,"64":0.17324083227337153,"65":0.5312165881747773,"66":0.08776208373399093,"67":-0.021126792753763668,"68":-0.21171717569223514,"69":-0.3171796374404394,"70":0.10570609799298154,"71":0.019264324382710873,"72":0.06100094731019852,"73":0.08432014813218258,"74":-0.09050546984877067,"75":0.09225221174618223,"76":-0.08247984603205596,"77":0.23344105717544106,"78":-0.13443746969284542,"79":-0.14031361344226634,"80":0.19292143515743648,"81":-0.05892148770980794,"82":0.22563648022687588,"83":0.20246933235368542,"84":-0.028075860175559526,"85":0.16728710837277533,"86":0.14663436230440263,"87":0.20331252057763338,"88":-0.18442962422121245,"89":-0.04426358934273054,"90":0.31772178723897054,"91":0.14283948097805713,"92":0.06876551169874814,"93":-0.2671185807530881,"94":0.22761946274421718,"95":0.17108625235071723,"96":-0.26489573663487986,"97":-0.12937648396301565,"98":0.02428942678323473,"99":-0.007758354781756653,"100":0.20334041964025218,"101":0.0674466426732511,"102":0.08532800304116492,"103":-0.21317803487385406,"104":-0.5734622280688199,"105":0.1334530949690096,"106":0.2232794668965307,"107":-0.06990373389749195,"108":-0.12611142514566848,"109":0.01096467050481551,"110":-0.19647488021781767,"111":-0.0807965817833555,"112":0.15291335866834144,"113":0.10921037179437118,"114":0.10515201308676692,"115":0.0423669195644845,"116":0.18044327988048847,"117":0.021361360625888545,"118":-0.17386594015649193,"119":-0.1192978029973923},"bias":-0.02629647342055773},"2":{"weights":{"0":0.15190365035039785,"1":0.07633894511521185,"2":0.10404510373311775,"3":-0.16873807063025167,"4":0.05811767219679082,"5":-0.07739083394579373,"6":-0.17393708872407337,"7":0.05476646026488438,"8":-0.061917366758158086,"9":0.03528489543012145,"10":-0.17889375342501082,"11":-0.16716431948215812,"12":-0.14886190504992772,"13":-0.15769960339098762,"14":-0.3017994441194959,"15":-0.04098721221092833,"16":0.016283038329678673,"17":0.06870309480176646,"18":-0.059688809529007195,"19":-0.07870679872291828,"20":-0.05352548800079962,"21":-0.0013598665807371144,"22":0.053378487667756255,"23":0.11380378649706449,"24":-0.29673183858176855,"25":-0.24898709484419504,"26":-0.3932330638699461,"27":-0.11047100889814766,"28":-0.40107425403794494,"29":-0.34353394125325787,"30":-0.27779138423682564,"31":-0.2466335669554947,"32":0.01567979142069757,"33":-0.03028625903088644,"34":0.17937704928341597,"35":-0.12181564806949538,"36":-0.1716182283740362,"37":-0.14684973617130362,"38":-0.022714084320958776,"39":-0.32308698506641775,"40":-0.15167016658948826,"41":0.024161481343347932,"42":-0.22904375878265504,"43":-0.1787753283345606,"44":-0.14156568556602944,"45":-0.11636571526198954,"46":0.24261724779746818,"47":0.3162688283026054,"48":-0.0030921911188984273,"49":0.19517868701549723,"50":0.17912439017044998,"51":0.14766896382535014,"52":0.07682287904784911,"53":0.23568966595934684,"54":0.20133008716676493,"55":0.34849522437922,"56":0.4348568032962091,"57":0.4262310163226996,"58":0.021324815747844398,"59":-0.020726470143592916,"60":-0.09680076681088921,"61":0.2646337175770728,"62":0.38949222803299344,"63":0.2926553255199758,"64":0.36428559758964585,"65":0.41927731850386935,"66":-0.02412204451857759,"67":0.02503641977557129,"68":0.36361781944204125,"69":0.27890222478443455,"70":0.4181567972666814,"71":0.5190406629300947,"72":0.1581541349580122,"73":0.04102041448501927,"74":0.06916553849303501,"75":-0.09598838718462953,"76":0.07273123463384513,"77":-0.0825324891437081,"78":0.16038474271516043,"79":0.2904731438437779,"80":-0.00015915300242678331,"81":0.24234841816001756,"82":0.06525287868585007,"83":0.15680697680303796,"84":0.23084345696477335,"85":-0.12875457093422107,"86":-0.10569504763473814,"87":-0.11498918118520099,"88":-0.14868812539780832,"89":-0.21058982325687622,"90":0.0077789164133179045,"91":-0.22631976361429304,"92":-0.13434147302215418,"93":-0.22475687238198722,"94":0.11073049578326784,"95":0.08822456312240028,"96":-0.0948794065925044,"97":-0.4394760393235239,"98":-0.1615477010758853,"99":0.06234124194595047,"100":-0.018011360435538252,"101":-0.2736515514252186,"102":-0.10708273487562092,"103":-0.2936414194171527,"104":-0.3146101692655172,"105":0.32686150293136385,"106":0.01889397658933508,"107":-0.015373746779099647,"108":0.06951271891256425,"109":-0.25133960356672197,"110":-0.26307631997818137,"111":0.01363654652998543,"112":-0.16709153419482975,"113":-0.14293556515356234,"114":-0.13207748722937135,"115":-0.2183320836087476,"116":-0.19261650979979578,"117":-0.05861171134693361,"118":-0.2643355272581753,"119":-0.33633297969271203},"bias":-0.10052751316787334},"3":{"weights":{"0":0.4588255986147228,"1":0.13308484040334267,"2":-0.11833464895610303,"3":-0.4173739940778442,"4":0.0369586775812509,"5":0.023586710854991776,"6":0.08799389377179666,"7":0.3839362550200272,"8":0.21009825841293933,"9":0.4700291887595038,"10":-0.032715806180803275,"11":0.4594316576934621,"12":0.02473983490562045,"13":-0.21779971379184584,"14":0.03362237964997674,"15":0.02888655884211799,"16":0.09638397633888954,"17":-0.09999428272155166,"18":-0.5094133770121894,"19":-0.16370228581191407,"20":0.37945033827991836,"21":0.19997612326494194,"22":0.1773256839076406,"23":0.09285162072175414,"24":0.16843039871193713,"25":0.1633465730522189,"26":0.3668586238093559,"27":-0.28376990695202337,"28":-0.05137723990127165,"29":-0.12498895932611807,"30":0.1505611090951676,"31":0.13183027469649888,"32":-0.2455272130156466,"33":-0.3586752825551663,"34":-0.41434816704937,"35":0.26621367619554537,"36":0.03850632266716633,"37":-0.2544069926024801,"38":-0.08136203161740009,"39":0.09653458624898138,"40":0.9124078516046087,"41":0.8747472692571577,"42":0.2686479398729634,"43":-0.020898506843967397,"44":0.13128179447711724,"45":0.1832924085567275,"46":-0.06275890398466324,"47":0.2189222603383734,"48":-0.1995539562773376,"49":0.08167038004427801,"50":0.44422966183106216,"51":0.24180697882817165,"52":-0.522304293141905,"53":-0.05409907241547319,"54":-0.08358896721715071,"55":0.3135908675954201,"56":0.14017776590414108,"57":-0.16984782626878764,"58":0.039085624111572875,"59":-0.21482060772288522,"60":0.06543992760527946,"61":-0.12629930426051114,"62":0.3287438273037958,"63":-0.059127335488028926,"64":0.14491102683106313,"65":0.6257505260616001,"66":0.42957340832624374,"67":-0.21641658091409757,"68":0.21739199366107773,"69":-0.08373922879373114,"70":0.18592336620266392,"71":0.10022573531516737,"72":0.2820385800196166,"73":-0.1465540832124034,"74":-0.0771212853926521,"75":-0.04549041553152202,"76":-0.1654406989991926,"77":0.04946800777007484,"78":-0.8585879021779783,"79":-0.8606664587891031,"80":0.0007166395401334548,"81":-0.049505042154095645,"82":0.10224695692716214,"83":0.10068051527800288,"84":-0.31579065800753453,"85":-0.43658947153970856,"86":-0.2686839866678041,"87":-0.34461445447265177,"88":-0.09766647978805099,"89":-0.1171235570793597,"90":1.049518371444275,"91":0.3103203488441553,"92":0.3050859214484816,"93":0.04017865317724662,"94":-0.5334839226749685,"95":0.417195597721063,"96":-0.03620529869291479,"97":0.1329990540248615,"98":-0.10142679501887707,"99":-0.13910183493572315,"100":-0.023736752420566297,"101":-0.13256342679261285,"102":-0.1797619808476646,"103":-0.040384424592590895,"104":0.32699459221120614,"105":0.29667587357572356,"106":0.9751225385783562,"107":-0.23669388151951604,"108":0.07435447097384892,"109":-0.9119950892901146,"110":-0.5007183890248315,"111":0.07794309515784008,"112":0.3769060707379688,"113":-0.5096414871835631,"114":-0.49563079855699965,"115":-0.08586073920887081,"116":-0.2509212245281116,"117":-0.28987766777441937,"118":0.1326767189547488,"119":0.21708212218774636},"bias":0.016003910321004622},"4":{"weights":{"0":0.3161600060149245,"1":-0.13794883046077475,"2":0.050694202217973085,"3":0.14651720795249312,"4":-0.15667627970831177,"5":0.4988546015888983,"6":0.044517756114531966,"7":-0.23698510629773595,"8":0.2266509775716725,"9":-0.16311187301275099,"10":0.027536063950547043,"11":-0.17784964663041358,"12":-0.0167645952587808,"13":-0.024895737801322686,"14":-0.47384016805240864,"15":0.21811262100532053,"16":0.134966351859398,"17":0.2407964041047469,"18":-0.20604737044280536,"19":-0.19691843337116693,"20":0.18066446623187202,"21":0.2110487707329828,"22":0.03522486355673873,"23":0.23666225710488994,"24":-0.34113560501861195,"25":-0.27109061827854325,"26":-0.2887467186355667,"27":0.1527536595283417,"28":0.0930606297878783,"29":0.10342183367837915,"30":0.14286826348729387,"31":0.10168481844246409,"32":-0.0291555740878282,"33":-0.2420905016334851,"34":0.08408989044354752,"35":0.06319170563245578,"36":0.25167925275968217,"37":0.1964324005118961,"38":-0.14269965508299792,"39":-0.06553935418202034,"40":-0.2590954562957007,"41":-0.3832102930482923,"42":0.21308730606889179,"43":0.44661979183351236,"44":0.33047760610506655,"45":0.31707044349056707,"46":-0.1982741753143713,"47":-0.3204949819850071,"48":-0.2760703666047592,"49":-0.34923197038639964,"50":-0.07140047425050874,"51":0.3002262836765905,"52":-0.06534781113593717,"53":-0.25678504465037133,"54":-0.0857115669263914,"55":-0.32361538678283214,"56":-0.020485175500161355,"57":-0.002912838365534865,"58":0.11423574083863008,"59":0.04221375563284615,"60":-0.07112295893935001,"61":-0.08075810137369169,"62":-0.23412225299908804,"63":-0.2897417202704188,"64":-0.26654180951052026,"65":-0.21074656079535642,"66":-0.12934370420302288,"67":-0.05510896955883451,"68":-0.12540216294894926,"69":-0.1277740267789723,"70":-0.05044887188897534,"71":-0.36073312952420533,"72":-0.2537214346452624,"73":0.014296763784810861,"74":-0.2378201035196541,"75":-0.11552962412817559,"76":-0.11262662424733756,"77":-0.166504238866109,"78":-0.16748157862331753,"79":0.02992415196168885,"80":-0.0062802196951994215,"81":-0.01116466150752309,"82":-0.1430150149247082,"83":0.09842067218607127,"84":0.24049258566094558,"85":0.22300244352398566,"86":-0.05878113511184427,"87":0.24151980848936164,"88":-0.21879338090315156,"89":-0.32426154031259635,"90":0.011705483633644978,"91":0.10724959218166016,"92":0.1404076917393392,"93":0.22261150923582193,"94":0.039540113715905635,"95":0.09785929058102108,"96":0.040574364349938455,"97":-0.2935706325643676,"98":0.3347757447413485,"99":0.29214349054441047,"100":0.3616898866043733,"101":0.24711475066639838,"102":0.14396725766994198,"103":-0.2891923619071894,"104":-0.37348727246890523,"105":0.23126848762165617,"106":0.04624903567393731,"107":0.3408859351116719,"108":0.32288027740515374,"109":-0.08987178654200967,"110":0.01065015985699524,"111":0.19813018577971264,"112":0.045899160261358436,"113":0.5389284171876751,"114":0.5799573015717159,"115":0.17163046800380172,"116":0.33514362559548794,"117":0.6282203738275608,"118":-0.1422567017574784,"119":-0.2429043848985763},"bias":-0.035195176564149895},"5":{"weights":{"0":-0.44994973601017674,"1":-0.44025806985676774,"2":-0.19264276057949503,"3":0.2968139711985847,"4":-0.10583951265320697,"5":0.05593279875896122,"6":0.28473329683341614,"7":0.33582462294629495,"8":0.025033695431349652,"9":0.6113969227791525,"10":0.5635358025103298,"11":0.3725398419940311,"12":0.03545314383994091,"13":0.04887048239173548,"14":-0.20968500999245981,"15":-0.3095982482340712,"16":-0.20093988760754283,"17":0.051727395482590074,"18":0.22562726577366263,"19":0.09479958149841701,"20":0.05411675745846288,"21":-0.059070765025665786,"22":-0.062429433968617,"23":0.02333016619348808,"24":-0.11366291788344506,"25":0.4187477267613149,"26":0.5320028426973825,"27":-0.20525080015238525,"28":-0.18649034928300676,"29":-0.28023858329566637,"30":-0.3390489134259971,"31":-0.1448202462078541,"32":-0.24607032939683898,"33":0.20079785357244478,"34":0.3246406442857271,"35":-0.018414338863101017,"36":0.1648058545747159,"37":0.07509912808698319,"38":0.09625744919263182,"39":-0.12680082123200337,"40":0.4382580109945518,"41":0.12662679933122906,"42":-0.4828409138897225,"43":-0.2473563592821051,"44":-0.4335375091633197,"45":-0.48532317328429775,"46":-0.00814629678159859,"47":-0.023613283258815388,"48":0.49082351197032803,"49":0.13522843167285775,"50":0.3867541868265139,"51":-0.2682803727096316,"52":-0.19681431385778594,"53":-0.29248389251731616,"54":-0.46219316250331893,"55":0.13695386887712227,"56":-0.008901562940219954,"57":0.2447324781507587,"58":0.016614380488778734,"59":-0.014980083977701678,"60":-0.06268508859039981,"61":-0.16595358889578235,"62":0.01688405722518,"63":0.3406508532250356,"64":0.15459393391821175,"65":0.26745929945129365,"66":-0.15819150450525615,"67":-0.1831756867384282,"68":-0.39416903482215065,"69":-0.44550288647546243,"70":0.27244624326463374,"71":0.19898182867615413,"72":0.04017926087838924,"73":0.11703926298679385,"74":-0.0676296386479262,"75":0.12330948044612165,"76":-0.1504605060383752,"77":-0.014937593774616923,"78":0.10956771290916098,"79":0.13890964116061694,"80":0.007556829569157241,"81":0.13473407605068097,"82":-0.04671621149183521,"83":-0.07183255250047321,"84":0.3814853898429392,"85":0.4109448253989644,"86":0.14690171300355578,"87":0.3299759860260484,"88":0.22734010018701625,"89":0.2812561952542466,"90":-0.23822789863773242,"91":-0.3669276655972604,"92":-0.3109352009651153,"93":0.040786253100101415,"94":-0.2272912002668312,"95":-0.2855920339294502,"96":-0.1383472372058777,"97":-0.04101507118650549,"98":0.12844459103636732,"99":0.19123843728334303,"100":0.09377129725517588,"101":-0.18207378689239337,"102":0.17923952105971838,"103":0.0006899772050914808,"104":-0.044712516367682004,"105":-0.38549157148672136,"106":-0.15416279690543122,"107":-0.192037250295718,"108":0.0434326451161936,"109":0.016690635037850208,"110":0.02522960853046153,"111":0.2598755565578555,"112":0.1352790990140194,"113":-0.12537443907834916,"114":0.08503100919946215,"115":0.20010201142292264,"116":0.03447599287683048,"117":-0.14158530036941433,"118":-0.22975839968494183,"119":0.08361287839532348},"bias":0.1530164945508849},"6":{"weights":{"0":-0.04536251236985049,"1":0.356939418091156,"2":-0.253835790010009,"3":-0.3964325302315322,"4":-0.5156889951024407,"5":-0.24958180875234282,"6":-1.175351406207257,"7":-0.9689594448465829,"8":-0.045887450210043146,"9":0.27622918645871625,"10":0.22644815588792291,"11":0.5307653450604783,"12":0.05112652710318769,"13":-0.01929779281604114,"14":-0.028313030169218014,"15":0.352499248204117,"16":-0.07709151764757632,"17":-0.24824015051250836,"18":-0.4754562385831084,"19":-0.3800939059585228,"20":-0.3531019105888188,"21":-0.2320433154839091,"22":-0.28962917076630723,"23":0.033000549864361885,"24":-0.08064079011845372,"25":0.2669292545065612,"26":0.39255491889641386,"27":-0.14409059368421545,"28":-0.1423129455160584,"29":-0.2237623792690846,"30":-0.01971248185450703,"31":0.2699310276798231,"32":-0.011589015387275732,"33":-0.1273601671015246,"34":-0.4692938505879865,"35":-0.26901874869890996,"36":-0.10180338167061735,"37":0.08221509677758192,"38":-0.04850397172350985,"39":-0.179852771060578,"40":0.4556535312960588,"41":0.5351673069154274,"42":0.15319355022616407,"43":0.05845068177939544,"44":-0.07469921465214374,"45":0.1715355577899009,"46":-0.002869740872913546,"47":-0.22699687022417778,"48":0.11067454978750563,"49":-0.2090320946092949,"50":-0.616050572169077,"51":0.42470229428959283,"52":0.793358274054858,"53":-0.5121280069436952,"54":-0.4713562880933954,"55":0.20239552040030825,"56":-0.03884567529175908,"57":-0.2946946333574718,"58":-0.3204930228911174,"59":-0.1935296520622855,"60":0.08316230959978059,"61":0.17480274335542628,"62":-0.13005609634904028,"63":-0.1637241268208426,"64":0.06850641087967588,"65":-0.04442342637001997,"66":0.7177882465019997,"67":1.0217667612142443,"68":-0.017396700687004565,"69":-0.1659811517755752,"70":0.17627791773145018,"71":0.2245356772156911,"72":0.16080822647322784,"73":-0.025437293272269613,"74":0.12254049680428568,"75":-0.11612541530273333,"76":-0.0031905010474877447,"77":0.10192025229548808,"78":0.6138384574610104,"79":0.44675429607654377,"80":-0.1087188937935495,"81":0.18727390170297403,"82":-0.003710772378167363,"83":0.09583279700975532,"84":-0.05712249500067983,"85":-0.09958241414494151,"86":-0.19007130707380626,"87":-0.29424651865177853,"88":-0.2635434444689831,"89":0.06417649025269424,"90":-0.2495013584241808,"91":0.2251238963937443,"92":0.26591891075086665,"93":0.46854803612082924,"94":0.7127447946206902,"95":0.37914143761660146,"96":0.05183926916571562,"97":0.18179201245212656,"98":0.029718140928742684,"99":-0.06992004708847664,"100":0.16056277598818,"101":-0.08295068836230239,"102":0.12152274116536359,"103":0.23170758285241128,"104":0.10688957952320578,"105":0.02378059650253466,"106":-0.23500924232216866,"107":0.04330737884638606,"108":0.002854209529343129,"109":0.5065562378068342,"110":0.38117858516604475,"111":-1.215873388609296,"112":-1.2258184605300821,"113":-0.33532503432379523,"114":0.005014186624206551,"115":-0.018571128474171306,"116":-0.1432926076678994,"117":-0.19506220695465898,"118":-0.2090456541730601,"119":0.22639788700595773},"bias":-0.02215461408481944}}},{"nodes":{"0":{"weights":{"0":-2.8375977018205547,"1":-1.634868839679526,"2":-1.089257562560848,"3":-1.8454019775471213,"4":0.5817619226553975,"5":1.4061461951004608,"6":-2.985476846394261},"bias":-0.3150309026308819},"1":{"weights":{"0":0.2048512109406817,"1":-0.3815513556414037,"2":3.122464708409959,"3":-2.8263927529784127,"4":-2.5534983124521693,"5":0.3994607286162298,"6":-1.9416663321101864},"bias":-0.7732849075433061},"2":{"weights":{"0":1.1721599746156521,"1":-1.264223245596876,"2":-1.8758028022179507,"3":-1.1797491389525907,"4":-2.8077515524815286,"5":-2.5338250750344637,"6":1.734136182489062},"bias":-0.32983053377195043},"3":{"weights":{"0":-2.25736073234191,"1":3.323239486013002,"2":-1.1262285643126573,"3":-3.112540316615915,"4":-0.14206838018348975,"5":-1.7727939660919905,"6":0.9920435722404969},"bias":-1.5636962787126703},"4":{"weights":{"0":-3.48032418867498,"1":-1.451663041437445,"2":0.3130866555246703,"3":1.9785093566248633,"4":-2.923471435427611,"5":0.23481970297098356,"6":1.1188521294092209},"bias":-1.0100787963741231},"5":{"weights":{"0":-1.7675177730512206,"1":2.9796748839414704,"2":-1.3563651195288537,"3":1.7367357639164573,"4":-0.41920081005408705,"5":-1.4029534247212327,"6":-3.27677728143385},"bias":-1.2004728862790819},"6":{"weights":{"0":0.04922973354243145,"1":-3.5262137464641765,"2":-1.531818295107293,"3":3.6585896395552733,"4":-0.39192858735014047,"5":0.07450111852302689,"6":-3.190150331242959},"bias":-1.7875867714550326},"7":{"weights":{"0":-0.3964812999621552,"1":1.6785050175667227,"2":2.6607023943886916,"3":1.0464360233063865,"4":-1.1202525398582994,"5":-3.771045337068313,"6":0.028036562931943062},"bias":-2.3597427930969905},"8":{"weights":{"0":-2.466034405985902,"1":-3.215634917849391,"2":-1.4633540624296066,"3":-2.071890215006806,"4":0.6495739283542172,"5":-0.19847940257803395,"6":2.668191443593129},"bias":-1.822084115872377},"9":{"weights":{"0":2.68632784652779,"1":-1.1806620143223565,"2":-1.7051681623720358,"3":-2.733990459548804,"4":0.8624557019341239,"5":-1.7074739272561834,"6":-3.3139594879412875},"bias":-1.3333342601833196}}}]}
