{
  "layers": [
    {
      "nodes": {
        "0": {},
        "1": {},
        "2": {},
        "3": {},
        "4": {},
        "5": {},
        "6": {},
        "7": {},
        "8": {},
        "9": {},
        "10": {},
        "11": {},
        "12": {},
        "13": {},
        "14": {},
        "15": {},
        "16": {},
        "17": {},
        "18": {},
        "19": {},
        "20": {},
        "21": {},
        "22": {},
        "23": {},
        "24": {},
        "25": {},
        "26": {},
        "27": {},
        "28": {},
        "29": {},
        "30": {},
        "31": {},
        "32": {},
        "33": {},
        "34": {},
        "35": {},
        "36": {},
        "37": {},
        "38": {},
        "39": {},
        "40": {},
        "41": {},
        "42": {},
        "43": {},
        "44": {},
        "45": {},
        "46": {},
        "47": {},
        "48": {},
        "49": {},
        "50": {},
        "51": {},
        "52": {},
        "53": {},
        "54": {},
        "55": {},
        "56": {},
        "57": {},
        "58": {},
        "59": {},
        "60": {},
        "61": {},
        "62": {},
        "63": {},
        "64": {},
        "65": {},
        "66": {},
        "67": {},
        "68": {},
        "69": {},
        "70": {},
        "71": {},
        "72": {},
        "73": {},
        "74": {},
        "75": {},
        "76": {},
        "77": {},
        "78": {},
        "79": {},
        "80": {},
        "81": {},
        "82": {},
        "83": {},
        "84": {},
        "85": {},
        "86": {},
        "87": {},
        "88": {},
        "89": {},
        "90": {},
        "91": {},
        "92": {},
        "93": {},
        "94": {},
        "95": {},
        "96": {},
        "97": {},
        "98": {},
        "99": {},
        "100": {},
        "101": {},
        "102": {},
        "103": {},
        "104": {},
        "105": {},
        "106": {},
        "107": {},
        "108": {},
        "109": {},
        "110": {},
        "111": {},
        "112": {},
        "113": {},
        "114": {},
        "115": {},
        "116": {},
        "117": {},
        "118": {},
        "119": {}
      }
    },
    {
      "nodes": {
        "0": {
          "weights": {
            "0": -0.194875181066,
            "1": 0.00151253465327,
            "2": 0.0408138005963,
            "3": -0.0282961446051,
            "4": 0.283405224632,
            "5": 0.118645710222,
            "6": 0.275383283957,
            "7": 0.0941357688026,
            "8": 0.0669480049498,
            "9": -0.475371558897,
            "10": -0.600089311123,
            "11": -0.511930202819,
            "12": 0.0755900874632,
            "13": 0.0661544741539,
            "14": 0.12606526887,
            "15": -0.371860586987,
            "16": 0.27532349531,
            "17": 0.22634470725,
            "18": 0.20160450186,
            "19": 0.38177529913,
            "20": -0.122541740697,
            "21": -0.0646208369832,
            "22": -0.0794514497198,
            "23": -0.0341907915472,
            "24": 0.309910775695,
            "25": -0.788271847007,
            "26": -0.72798192002,
            "27": 0.207605517829,
            "28": -0.0543406456803,
            "29": 0.230571975945,
            "30": 0.312090612498,
            "31": 0.116379512358,
            "32": 0.391336420902,
            "33": 0.237838394702,
            "34": 0.230748755446,
            "35": -0.279940980758,
            "36": -0.262810202815,
            "37": -0.159788678847,
            "38": 0.605252027417,
            "39": 0.254046182673,
            "40": -0.386116886209,
            "41": -0.208058055601,
            "42": 0.111987744657,
            "43": 0.126900880748,
            "44": 0.127921648237,
            "45": 0.225330415908,
            "46": -0.105832774596,
            "47": -0.20987223893,
            "48": -0.227174131345,
            "49": -0.0986019899747,
            "50": 0.721040733356,
            "51": 0.190231906965,
            "52": -0.0738775586391,
            "53": 0.973128397117,
            "54": 0.990439849146,
            "55": 0.234295596964,
            "56": -0.100493153118,
            "57": 0.231872135561,
            "58": 0.214220653841,
            "59": 0.310231053123,
            "60": -0.0266111881177,
            "61": 0.0914604213203,
            "62": -0.146755426216,
            "63": -0.285870804146,
            "64": -0.183754646146,
            "65": 0.362825297622,
            "66": 0.366945978532,
            "67": -0.119077773612,
            "68": 0.748080153676,
            "69": 0.705074693685,
            "70": 0.0839711732047,
            "71": -0.0519709392667,
            "72": 0.0806129669588,
            "73": -0.15809437985,
            "74": 0.0185054068134,
            "75": 0.0217831532281,
            "76": 0.20617747681,
            "77": 0.0122189883395,
            "78": -0.623079495933,
            "79": -0.384198023032,
            "80": -0.0988574546549,
            "81": -0.160093441486,
            "82": -0.0782286510582,
            "83": -0.0443194164148,
            "84": -0.110535150344,
            "85": -0.36718339882,
            "86": -0.340417647484,
            "87": -0.252068840377,
            "88": 0.112213670366,
            "89": -0.183710053452,
            "90": 0.177989559422,
            "91": -0.218298812173,
            "92": -0.0683902136274,
            "93": 0.234670637836,
            "94": -0.559759403383,
            "95": -0.127652124915,
            "96": -0.189415569208,
            "97": -0.217520982759,
            "98": -0.446297316009,
            "99": -0.362798310561,
            "100": -0.143997425293,
            "101": -0.314831277023,
            "102": -0.152432870188,
            "103": -0.135038602363,
            "104": -0.0942999265981,
            "105": -0.124100629571,
            "106": 0.641049584547,
            "107": 0.389319605658,
            "108": 0.512416716942,
            "109": -0.258005115239,
            "110": -0.241329494681,
            "111": 0.233860865636,
            "112": 0.380197558676,
            "113": 0.0668466006765,
            "114": -0.057464633031,
            "115": -0.338306489072,
            "116": -0.17781337172,
            "117": -0.113353682954,
            "118": 0.339467351697,
            "119": 0.377622638574
          },
          "bias": 0.113400422378
        },
        "1": {
          "weights": {
            "0": 0.398047947783,
            "1": 0.735496079703,
            "2": 0.213185879802,
            "3": -0.182660104221,
            "4": -0.296430715338,
            "5": -0.0184021791952,
            "6": -0.0784914078832,
            "7": -0.0368671413126,
            "8": -0.529579050182,
            "9": -0.390080120665,
            "10": 0.237680920359,
            "11": 0.152979439876,
            "12": 0.0703374196705,
            "13": 0.0269971202454,
            "14": -0.0339098801255,
            "15": 1.02561575024,
            "16": 0.35886975635,
            "17": -0.0127636759963,
            "18": -0.0214228197007,
            "19": -0.426130561362,
            "20": -0.395152210281,
            "21": -0.396104004186,
            "22": -0.218389367067,
            "23": -0.639793810864,
            "24": -0.777620748174,
            "25": -0.00974597145602,
            "26": 0.066274622623,
            "27": -0.107105429225,
            "28": -0.177648080265,
            "29": 0.0577801492026,
            "30": 0.297320487192,
            "31": 0.166884319508,
            "32": 0.110241640364,
            "33": -0.667322617364,
            "34": -0.862831999323,
            "35": -0.394397101208,
            "36": 0.0176671712235,
            "37": -0.0499428828812,
            "38": -0.699107990572,
            "39": -0.54635122,
            "40": -0.697676486054,
            "41": -0.633490751904,
            "42": 0.270520854344,
            "43": -0.027057064343,
            "44": 0.14343705396,
            "45": 0.35510274048,
            "46": -0.0653211055372,
            "47": 0.501644888681,
            "48": -0.293807573209,
            "49": -0.242677403115,
            "50": -0.148975789236,
            "51": 0.268342883649,
            "52": 0.073056000479,
            "53": -0.287346496554,
            "54": -0.254906238223,
            "55": 0.0902364961245,
            "56": -0.0414237483002,
            "57": 0.320259591591,
            "58": -0.067349608284,
            "59": -0.0732005957428,
            "60": -0.0147544857303,
            "61": 0.108227271949,
            "62": 0.453142551029,
            "63": -0.111546690508,
            "64": 0.173240832273,
            "65": 0.531216588175,
            "66": 0.087762083734,
            "67": -0.0211267927538,
            "68": -0.211717175692,
            "69": -0.31717963744,
            "70": 0.105706097993,
            "71": 0.0192643243827,
            "72": 0.0610009473102,
            "73": 0.0843201481322,
            "74": -0.0905054698488,
            "75": 0.0922522117462,
            "76": -0.0824798460321,
            "77": 0.233441057175,
            "78": -0.134437469693,
            "79": -0.140313613442,
            "80": 0.192921435157,
            "81": -0.0589214877098,
            "82": 0.225636480227,
            "83": 0.202469332354,
            "84": -0.0280758601756,
            "85": 0.167287108373,
            "86": 0.146634362304,
            "87": 0.203312520578,
            "88": -0.184429624221,
            "89": -0.0442635893427,
            "90": 0.317721787239,
            "91": 0.142839480978,
            "92": 0.0687655116987,
            "93": -0.267118580753,
            "94": 0.227619462744,
            "95": 0.171086252351,
            "96": -0.264895736635,
            "97": -0.129376483963,
            "98": 0.0242894267832,
            "99": -0.00775835478176,
            "100": 0.20334041964,
            "101": 0.0674466426733,
            "102": 0.0853280030412,
            "103": -0.213178034874,
            "104": -0.573462228069,
            "105": 0.133453094969,
            "106": 0.223279466897,
            "107": -0.0699037338975,
            "108": -0.126111425146,
            "109": 0.0109646705048,
            "110": -0.196474880218,
            "111": -0.0807965817834,
            "112": 0.152913358668,
            "113": 0.109210371794,
            "114": 0.105152013087,
            "115": 0.0423669195645,
            "116": 0.18044327988,
            "117": 0.0213613606259,
            "118": -0.173865940156,
            "119": -0.119297802997
          },
          "bias": -0.0262964734206
        },
        "2": {
          "weights": {
            "0": 0.15190365035,
            "1": 0.0763389451152,
            "2": 0.104045103733,
            "3": -0.16873807063,
            "4": 0.0581176721968,
            "5": -0.0773908339458,
            "6": -0.173937088724,
            "7": 0.0547664602649,
            "8": -0.0619173667582,
            "9": 0.0352848954301,
            "10": -0.178893753425,
            "11": -0.167164319482,
            "12": -0.14886190505,
            "13": -0.157699603391,
            "14": -0.301799444119,
            "15": -0.0409872122109,
            "16": 0.0162830383297,
            "17": 0.0687030948018,
            "18": -0.059688809529,
            "19": -0.0787067987229,
            "20": -0.0535254880008,
            "21": -0.00135986658074,
            "22": 0.0533784876678,
            "23": 0.113803786497,
            "24": -0.296731838582,
            "25": -0.248987094844,
            "26": -0.39323306387,
            "27": -0.110471008898,
            "28": -0.401074254038,
            "29": -0.343533941253,
            "30": -0.277791384237,
            "31": -0.246633566955,
            "32": 0.0156797914207,
            "33": -0.0302862590309,
            "34": 0.179377049283,
            "35": -0.121815648069,
            "36": -0.171618228374,
            "37": -0.146849736171,
            "38": -0.022714084321,
            "39": -0.323086985066,
            "40": -0.151670166589,
            "41": 0.0241614813433,
            "42": -0.229043758783,
            "43": -0.178775328335,
            "44": -0.141565685566,
            "45": -0.116365715262,
            "46": 0.242617247797,
            "47": 0.316268828303,
            "48": -0.0030921911189,
            "49": 0.195178687015,
            "50": 0.17912439017,
            "51": 0.147668963825,
            "52": 0.0768228790478,
            "53": 0.235689665959,
            "54": 0.201330087167,
            "55": 0.348495224379,
            "56": 0.434856803296,
            "57": 0.426231016323,
            "58": 0.0213248157478,
            "59": -0.0207264701436,
            "60": -0.0968007668109,
            "61": 0.264633717577,
            "62": 0.389492228033,
            "63": 0.29265532552,
            "64": 0.36428559759,
            "65": 0.419277318504,
            "66": -0.0241220445186,
            "67": 0.0250364197756,
            "68": 0.363617819442,
            "69": 0.278902224784,
            "70": 0.418156797267,
            "71": 0.51904066293,
            "72": 0.158154134958,
            "73": 0.041020414485,
            "74": 0.069165538493,
            "75": -0.0959883871846,
            "76": 0.0727312346338,
            "77": -0.0825324891437,
            "78": 0.160384742715,
            "79": 0.290473143844,
            "80": -0.000159153002427,
            "81": 0.24234841816,
            "82": 0.0652528786859,
            "83": 0.156806976803,
            "84": 0.230843456965,
            "85": -0.128754570934,
            "86": -0.105695047635,
            "87": -0.114989181185,
            "88": -0.148688125398,
            "89": -0.210589823257,
            "90": 0.00777891641332,
            "91": -0.226319763614,
            "92": -0.134341473022,
            "93": -0.224756872382,
            "94": 0.110730495783,
            "95": 0.0882245631224,
            "96": -0.0948794065925,
            "97": -0.439476039324,
            "98": -0.161547701076,
            "99": 0.062341241946,
            "100": -0.0180113604355,
            "101": -0.273651551425,
            "102": -0.107082734876,
            "103": -0.293641419417,
            "104": -0.314610169266,
            "105": 0.326861502931,
            "106": 0.0188939765893,
            "107": -0.0153737467791,
            "108": 0.0695127189126,
            "109": -0.251339603567,
            "110": -0.263076319978,
            "111": 0.01363654653,
            "112": -0.167091534195,
            "113": -0.142935565154,
            "114": -0.132077487229,
            "115": -0.218332083609,
            "116": -0.1926165098,
            "117": -0.0586117113469,
            "118": -0.264335527258,
            "119": -0.336332979693
          },
          "bias": -0.100527513168
        },
        "3": {
          "weights": {
            "0": 0.458825598615,
            "1": 0.133084840403,
            "2": -0.118334648956,
            "3": -0.417373994078,
            "4": 0.0369586775813,
            "5": 0.023586710855,
            "6": 0.0879938937718,
            "7": 0.38393625502,
            "8": 0.210098258413,
            "9": 0.47002918876,
            "10": -0.0327158061808,
            "11": 0.459431657693,
            "12": 0.0247398349056,
            "13": -0.217799713792,
            "14": 0.03362237965,
            "15": 0.0288865588421,
            "16": 0.0963839763389,
            "17": -0.0999942827216,
            "18": -0.509413377012,
            "19": -0.163702285812,
            "20": 0.37945033828,
            "21": 0.199976123265,
            "22": 0.177325683908,
            "23": 0.0928516207218,
            "24": 0.168430398712,
            "25": 0.163346573052,
            "26": 0.366858623809,
            "27": -0.283769906952,
            "28": -0.0513772399013,
            "29": -0.124988959326,
            "30": 0.150561109095,
            "31": 0.131830274696,
            "32": -0.245527213016,
            "33": -0.358675282555,
            "34": -0.414348167049,
            "35": 0.266213676196,
            "36": 0.0385063226672,
            "37": -0.254406992602,
            "38": -0.0813620316174,
            "39": 0.096534586249,
            "40": 0.912407851605,
            "41": 0.874747269257,
            "42": 0.268647939873,
            "43": -0.020898506844,
            "44": 0.131281794477,
            "45": 0.183292408557,
            "46": -0.0627589039847,
            "47": 0.218922260338,
            "48": -0.199553956277,
            "49": 0.0816703800443,
            "50": 0.444229661831,
            "51": 0.241806978828,
            "52": -0.522304293142,
            "53": -0.0540990724155,
            "54": -0.0835889672172,
            "55": 0.313590867595,
            "56": 0.140177765904,
            "57": -0.169847826269,
            "58": 0.0390856241116,
            "59": -0.214820607723,
            "60": 0.0654399276053,
            "61": -0.126299304261,
            "62": 0.328743827304,
            "63": -0.059127335488,
            "64": 0.144911026831,
            "65": 0.625750526062,
            "66": 0.429573408326,
            "67": -0.216416580914,
            "68": 0.217391993661,
            "69": -0.0837392287937,
            "70": 0.185923366203,
            "71": 0.100225735315,
            "72": 0.28203858002,
            "73": -0.146554083212,
            "74": -0.0771212853927,
            "75": -0.0454904155315,
            "76": -0.165440698999,
            "77": 0.0494680077701,
            "78": -0.858587902178,
            "79": -0.860666458789,
            "80": 0.000716639540133,
            "81": -0.0495050421541,
            "82": 0.102246956927,
            "83": 0.100680515278,
            "84": -0.315790658008,
            "85": -0.43658947154,
            "86": -0.268683986668,
            "87": -0.344614454473,
            "88": -0.0976664797881,
            "89": -0.117123557079,
            "90": 1.04951837144,
            "91": 0.310320348844,
            "92": 0.305085921448,
            "93": 0.0401786531772,
            "94": -0.533483922675,
            "95": 0.417195597721,
            "96": -0.0362052986929,
            "97": 0.132999054025,
            "98": -0.101426795019,
            "99": -0.139101834936,
            "100": -0.0237367524206,
            "101": -0.132563426793,
            "102": -0.179761980848,
            "103": -0.0403844245926,
            "104": 0.326994592211,
            "105": 0.296675873576,
            "106": 0.975122538578,
            "107": -0.23669388152,
            "108": 0.0743544709738,
            "109": -0.91199508929,
            "110": -0.500718389025,
            "111": 0.0779430951578,
            "112": 0.376906070738,
            "113": -0.509641487184,
            "114": -0.495630798557,
            "115": -0.0858607392089,
            "116": -0.250921224528,
            "117": -0.289877667774,
            "118": 0.132676718955,
            "119": 0.217082122188
          },
          "bias": 0.016003910321
        },
        "4": {
          "weights": {
            "0": 0.316160006015,
            "1": -0.137948830461,
            "2": 0.050694202218,
            "3": 0.146517207952,
            "4": -0.156676279708,
            "5": 0.498854601589,
            "6": 0.0445177561145,
            "7": -0.236985106298,
            "8": 0.226650977572,
            "9": -0.163111873013,
            "10": 0.0275360639505,
            "11": -0.17784964663,
            "12": -0.0167645952588,
            "13": -0.0248957378013,
            "14": -0.473840168052,
            "15": 0.218112621005,
            "16": 0.134966351859,
            "17": 0.240796404105,
            "18": -0.206047370443,
            "19": -0.196918433371,
            "20": 0.180664466232,
            "21": 0.211048770733,
            "22": 0.0352248635567,
            "23": 0.236662257105,
            "24": -0.341135605019,
            "25": -0.271090618279,
            "26": -0.288746718636,
            "27": 0.152753659528,
            "28": 0.0930606297879,
            "29": 0.103421833678,
            "30": 0.142868263487,
            "31": 0.101684818442,
            "32": -0.0291555740878,
            "33": -0.242090501633,
            "34": 0.0840898904435,
            "35": 0.0631917056325,
            "36": 0.25167925276,
            "37": 0.196432400512,
            "38": -0.142699655083,
            "39": -0.065539354182,
            "40": -0.259095456296,
            "41": -0.383210293048,
            "42": 0.213087306069,
            "43": 0.446619791834,
            "44": 0.330477606105,
            "45": 0.317070443491,
            "46": -0.198274175314,
            "47": -0.320494981985,
            "48": -0.276070366605,
            "49": -0.349231970386,
            "50": -0.0714004742505,
            "51": 0.300226283677,
            "52": -0.0653478111359,
            "53": -0.25678504465,
            "54": -0.0857115669264,
            "55": -0.323615386783,
            "56": -0.0204851755002,
            "57": -0.00291283836553,
            "58": 0.114235740839,
            "59": 0.0422137556328,
            "60": -0.0711229589394,
            "61": -0.0807581013737,
            "62": -0.234122252999,
            "63": -0.28974172027,
            "64": -0.266541809511,
            "65": -0.210746560795,
            "66": -0.129343704203,
            "67": -0.0551089695588,
            "68": -0.125402162949,
            "69": -0.127774026779,
            "70": -0.050448871889,
            "71": -0.360733129524,
            "72": -0.253721434645,
            "73": 0.0142967637848,
            "74": -0.23782010352,
            "75": -0.115529624128,
            "76": -0.112626624247,
            "77": -0.166504238866,
            "78": -0.167481578623,
            "79": 0.0299241519617,
            "80": -0.0062802196952,
            "81": -0.0111646615075,
            "82": -0.143015014925,
            "83": 0.0984206721861,
            "84": 0.240492585661,
            "85": 0.223002443524,
            "86": -0.0587811351118,
            "87": 0.241519808489,
            "88": -0.218793380903,
            "89": -0.324261540313,
            "90": 0.0117054836336,
            "91": 0.107249592182,
            "92": 0.140407691739,
            "93": 0.222611509236,
            "94": 0.0395401137159,
            "95": 0.097859290581,
            "96": 0.0405743643499,
            "97": -0.293570632564,
            "98": 0.334775744741,
            "99": 0.292143490544,
            "100": 0.361689886604,
            "101": 0.247114750666,
            "102": 0.14396725767,
            "103": -0.289192361907,
            "104": -0.373487272469,
            "105": 0.231268487622,
            "106": 0.0462490356739,
            "107": 0.340885935112,
            "108": 0.322880277405,
            "109": -0.089871786542,
            "110": 0.010650159857,
            "111": 0.19813018578,
            "112": 0.0458991602614,
            "113": 0.538928417188,
            "114": 0.579957301572,
            "115": 0.171630468004,
            "116": 0.335143625595,
            "117": 0.628220373828,
            "118": -0.142256701757,
            "119": -0.242904384899
          },
          "bias": -0.0351951765641
        },
        "5": {
          "weights": {
            "0": -0.44994973601,
            "1": -0.440258069857,
            "2": -0.192642760579,
            "3": 0.296813971199,
            "4": -0.105839512653,
            "5": 0.055932798759,
            "6": 0.284733296833,
            "7": 0.335824622946,
            "8": 0.0250336954313,
            "9": 0.611396922779,
            "10": 0.56353580251,
            "11": 0.372539841994,
            "12": 0.0354531438399,
            "13": 0.0488704823917,
            "14": -0.209685009992,
            "15": -0.309598248234,
            "16": -0.200939887608,
            "17": 0.0517273954826,
            "18": 0.225627265774,
            "19": 0.0947995814984,
            "20": 0.0541167574585,
            "21": -0.0590707650257,
            "22": -0.0624294339686,
            "23": 0.0233301661935,
            "24": -0.113662917883,
            "25": 0.418747726761,
            "26": 0.532002842697,
            "27": -0.205250800152,
            "28": -0.186490349283,
            "29": -0.280238583296,
            "30": -0.339048913426,
            "31": -0.144820246208,
            "32": -0.246070329397,
            "33": 0.200797853572,
            "34": 0.324640644286,
            "35": -0.0184143388631,
            "36": 0.164805854575,
            "37": 0.075099128087,
            "38": 0.0962574491926,
            "39": -0.126800821232,
            "40": 0.438258010995,
            "41": 0.126626799331,
            "42": -0.48284091389,
            "43": -0.247356359282,
            "44": -0.433537509163,
            "45": -0.485323173284,
            "46": -0.0081462967816,
            "47": -0.0236132832588,
            "48": 0.49082351197,
            "49": 0.135228431673,
            "50": 0.386754186827,
            "51": -0.26828037271,
            "52": -0.196814313858,
            "53": -0.292483892517,
            "54": -0.462193162503,
            "55": 0.136953868877,
            "56": -0.00890156294022,
            "57": 0.244732478151,
            "58": 0.0166143804888,
            "59": -0.0149800839777,
            "60": -0.0626850885904,
            "61": -0.165953588896,
            "62": 0.0168840572252,
            "63": 0.340650853225,
            "64": 0.154593933918,
            "65": 0.267459299451,
            "66": -0.158191504505,
            "67": -0.183175686738,
            "68": -0.394169034822,
            "69": -0.445502886475,
            "70": 0.272446243265,
            "71": 0.198981828676,
            "72": 0.0401792608784,
            "73": 0.117039262987,
            "74": -0.0676296386479,
            "75": 0.123309480446,
            "76": -0.150460506038,
            "77": -0.0149375937746,
            "78": 0.109567712909,
            "79": 0.138909641161,
            "80": 0.00755682956916,
            "81": 0.134734076051,
            "82": -0.0467162114918,
            "83": -0.0718325525005,
            "84": 0.381485389843,
            "85": 0.410944825399,
            "86": 0.146901713004,
            "87": 0.329975986026,
            "88": 0.227340100187,
            "89": 0.281256195254,
            "90": -0.238227898638,
            "91": -0.366927665597,
            "92": -0.310935200965,
            "93": 0.0407862531001,
            "94": -0.227291200267,
            "95": -0.285592033929,
            "96": -0.138347237206,
            "97": -0.0410150711865,
            "98": 0.128444591036,
            "99": 0.191238437283,
            "100": 0.0937712972552,
            "101": -0.182073786892,
            "102": 0.17923952106,
            "103": 0.000689977205091,
            "104": -0.0447125163677,
            "105": -0.385491571487,
            "106": -0.154162796905,
            "107": -0.192037250296,
            "108": 0.0434326451162,
            "109": 0.0166906350379,
            "110": 0.0252296085305,
            "111": 0.259875556558,
            "112": 0.135279099014,
            "113": -0.125374439078,
            "114": 0.0850310091995,
            "115": 0.200102011423,
            "116": 0.0344759928768,
            "117": -0.141585300369,
            "118": -0.229758399685,
            "119": 0.0836128783953
          },
          "bias": 0.153016494551
        },
        "6": {
          "weights": {
            "0": -0.0453625123699,
            "1": 0.356939418091,
            "2": -0.25383579001,
            "3": -0.396432530232,
            "4": -0.515688995102,
            "5": -0.249581808752,
            "6": -1.17535140621,
            "7": -0.968959444847,
            "8": -0.04588745021,
            "9": 0.276229186459,
            "10": 0.226448155888,
            "11": 0.53076534506,
            "12": 0.0511265271032,
            "13": -0.019297792816,
            "14": -0.0283130301692,
            "15": 0.352499248204,
            "16": -0.0770915176476,
            "17": -0.248240150513,
            "18": -0.475456238583,
            "19": -0.380093905959,
            "20": -0.353101910589,
            "21": -0.232043315484,
            "22": -0.289629170766,
            "23": 0.0330005498644,
            "24": -0.0806407901185,
            "25": 0.266929254507,
            "26": 0.392554918896,
            "27": -0.144090593684,
            "28": -0.142312945516,
            "29": -0.223762379269,
            "30": -0.0197124818545,
            "31": 0.26993102768,
            "32": -0.0115890153873,
            "33": -0.127360167102,
            "34": -0.469293850588,
            "35": -0.269018748699,
            "36": -0.101803381671,
            "37": 0.0822150967776,
            "38": -0.0485039717235,
            "39": -0.179852771061,
            "40": 0.455653531296,
            "41": 0.535167306915,
            "42": 0.153193550226,
            "43": 0.0584506817794,
            "44": -0.0746992146521,
            "45": 0.17153555779,
            "46": -0.00286974087291,
            "47": -0.226996870224,
            "48": 0.110674549788,
            "49": -0.209032094609,
            "50": -0.616050572169,
            "51": 0.42470229429,
            "52": 0.793358274055,
            "53": -0.512128006944,
            "54": -0.471356288093,
            "55": 0.2023955204,
            "56": -0.0388456752918,
            "57": -0.294694633357,
            "58": -0.320493022891,
            "59": -0.193529652062,
            "60": 0.0831623095998,
            "61": 0.174802743355,
            "62": -0.130056096349,
            "63": -0.163724126821,
            "64": 0.0685064108797,
            "65": -0.04442342637,
            "66": 0.717788246502,
            "67": 1.02176676121,
            "68": -0.017396700687,
            "69": -0.165981151776,
            "70": 0.176277917731,
            "71": 0.224535677216,
            "72": 0.160808226473,
            "73": -0.0254372932723,
            "74": 0.122540496804,
            "75": -0.116125415303,
            "76": -0.00319050104749,
            "77": 0.101920252295,
            "78": 0.613838457461,
            "79": 0.446754296077,
            "80": -0.108718893794,
            "81": 0.187273901703,
            "82": -0.00371077237817,
            "83": 0.0958327970098,
            "84": -0.0571224950007,
            "85": -0.0995824141449,
            "86": -0.190071307074,
            "87": -0.294246518652,
            "88": -0.263543444469,
            "89": 0.0641764902527,
            "90": -0.249501358424,
            "91": 0.225123896394,
            "92": 0.265918910751,
            "93": 0.468548036121,
            "94": 0.712744794621,
            "95": 0.379141437617,
            "96": 0.0518392691657,
            "97": 0.181792012452,
            "98": 0.0297181409287,
            "99": -0.0699200470885,
            "100": 0.160562775988,
            "101": -0.0829506883623,
            "102": 0.121522741165,
            "103": 0.231707582852,
            "104": 0.106889579523,
            "105": 0.0237805965025,
            "106": -0.235009242322,
            "107": 0.0433073788464,
            "108": 0.00285420952934,
            "109": 0.506556237807,
            "110": 0.381178585166,
            "111": -1.21587338861,
            "112": -1.22581846053,
            "113": -0.335325034324,
            "114": 0.00501418662421,
            "115": -0.0185711284742,
            "116": -0.143292607668,
            "117": -0.195062206955,
            "118": -0.209045654173,
            "119": 0.226397887006
          },
          "bias": -0.0221546140848
        }
      }
    },
    {
      "nodes": {
        "0": {
          "weights": {
            "0": -2.83759770182,
            "1": -1.63486883968,
            "2": -1.08925756256,
            "3": -1.84540197755,
            "4": 0.581761922655,
            "5": 1.4061461951,
            "6": -2.98547684639
          },
          "bias": -0.315030902631
        },
        "1": {
          "weights": {
            "0": 0.204851210941,
            "1": -0.381551355641,
            "2": 3.12246470841,
            "3": -2.82639275298,
            "4": -2.55349831245,
            "5": 0.399460728616,
            "6": -1.94166633211
          },
          "bias": -0.773284907543
        },
        "2": {
          "weights": {
            "0": 1.17215997462,
            "1": -1.2642232456,
            "2": -1.87580280222,
            "3": -1.17974913895,
            "4": -2.80775155248,
            "5": -2.53382507503,
            "6": 1.73413618249
          },
          "bias": -0.329830533772
        },
        "3": {
          "weights": {
            "0": -2.25736073234,
            "1": 3.32323948601,
            "2": -1.12622856431,
            "3": -3.11254031662,
            "4": -0.142068380183,
            "5": -1.77279396609,
            "6": 0.99204357224
          },
          "bias": -1.56369627871
        },
        "4": {
          "weights": {
            "0": -3.48032418867,
            "1": -1.45166304144,
            "2": 0.313086655525,
            "3": 1.97850935662,
            "4": -2.92347143543,
            "5": 0.234819702971,
            "6": 1.11885212941
          },
          "bias": -1.01007879637
        },
        "5": {
          "weights": {
            "0": -1.76751777305,
            "1": 2.97967488394,
            "2": -1.35636511953,
            "3": 1.73673576392,
            "4": -0.419200810054,
            "5": -1.40295342472,
            "6": -3.27677728143
          },
          "bias": -1.20047288628
        },
        "6": {
          "weights": {
            "0": 0.0492297335424,
            "1": -3.52621374646,
            "2": -1.53181829511,
            "3": 3.65858963956,
            "4": -0.39192858735,
            "5": 0.074501118523,
            "6": -3.19015033124
          },
          "bias": -1.78758677146
        },
        "7": {
          "weights": {
            "0": -0.396481299962,
            "1": 1.67850501757,
            "2": 2.66070239439,
            "3": 1.04643602331,
            "4": -1.12025253986,
            "5": -3.77104533707,
            "6": 0.0280365629319
          },
          "bias": -2.3597427931
        },
        "8": {
          "weights": {
            "0": -2.46603440599,
            "1": -3.21563491785,
            "2": -1.46335406243,
            "3": -2.07189021501,
            "4": 0.649573928354,
            "5": -0.198479402578,
            "6": 2.66819144359
          },
          "bias": -1.82208411587
        },
        "9": {
          "weights": {
            "0": 2.68632784653,
            "1": -1.18066201432,
            "2": -1.70516816237,
            "3": -2.73399045955,
            "4": 0.862455701934,
            "5": -1.70747392726,
            "6": -3.31395948794
          },
          "bias": -1.33333426018
        }
      }
    }
  ]
}
